net 
{
    node_size = (76 36);
}

node VisitToAsia
{
    label = "Visit To Asia?";
    position = (363 380);
    states = ("NoVisit"  "Visit");
}

node Tuberculosis
{
    label = "Tuberculosis?";
    position = (279 179);
    states = ("Absent"  "Present");
}

node Smoking
{
    label = "Smoking?";
    position = (628 352);
    states = ("NonSmoker"  "Smoker");
}

node LungCancer
{
    label = "Lung Cancer?";
    position = (494 195);
    states = ("Absent"  "Present");
}

node TbOrCa
{
    label = "Tuberculosis or Lung Cancer?";
    position = (484 77);
    states = ("Nothing"  "CancerORTuberculosis");
}

node XRay
{
    label = "X-Ray Result";
    position = (191 -18);
    states = ("Normal"  "Abnormal");
}

node Bronchitis
{
    label = "Bronchitis?";
    position = (713 170);
    states = ("Absent"  "Present");
}

node Dyspnea
{
    label = "Dyspnea?";
    position = (756 1);
    states = ("Absent"  "Present");
}

potential (VisitToAsia |)
{
    data = (0.99000000 0.01000000);
}

potential (Tuberculosis | VisitToAsia)
{
    data = ((0.99000000 0.01000000)
        (0.95000000 0.05000000));
}

potential (Smoking |)
{
    data = (0.50000000 0.50000000);
}

potential (LungCancer | Smoking)
{
    data = ((0.99000000 0.01000000)
        (0.90000000 0.10000000));
}

potential (TbOrCa | Tuberculosis LungCancer)
{
    data = (((1.00000000 0.00000000)
        (0.00000000 1.00000000))
        ((0.00000000 1.00000000)
        (0.00000000 1.00000000)));
}

potential (XRay | TbOrCa)
{
    data = ((0.95000000 0.05000000)
        (0.02000000 0.98000000));
}

potential (Bronchitis | Smoking)
{
    data = ((0.70000000 0.30000000)
        (0.40000000 0.60000000));
}

potential (Dyspnea | TbOrCa Bronchitis)
{
    data = (((0.90000000 0.10000000)
        (0.20000000 0.80000000))
        ((0.30000000 0.70000000)
        (0.10000000 0.90000000)));
}
